digraph Tree {
node [shape=box, style="filled, rounded", color="black", fontname=helvetica] ;
edge [fontname=helvetica] ;
0 [label="petal width (cm) <= 0.8\ngini = 0.67\nsamples = 98\nvalue = [51, 49, 50]\nclass = setosa", fillcolor="#fffefd"] ;
1 [label="gini = 0.0\nsamples = 35\nvalue = [51, 0, 0]\nclass = setosa", fillcolor="#e58139"] ;
0 -> 1 [labeldistance=2.5, labelangle=45, headlabel="True"] ;
2 [label="sepal length (cm) <= 6.25\ngini = 0.5\nsamples = 63\nvalue = [0, 49, 50]\nclass = virginica", fillcolor="#fcfbfe"] ;
0 -> 2 [labeldistance=2.5, labelangle=-45, headlabel="False"] ;
3 [label="petal width (cm) <= 1.65\ngini = 0.33\nsamples = 32\nvalue = [0, 42, 11]\nclass = versicolor", fillcolor="#6deca2"] ;
2 -> 3 ;
4 [label="petal length (cm) <= 5.35\ngini = 0.05\nsamples = 25\nvalue = [0, 42, 1]\nclass = versicolor", fillcolor="#3ee684"] ;
3 -> 4 ;
5 [label="gini = 0.0\nsamples = 24\nvalue = [0, 42, 0]\nclass = versicolor", fillcolor="#39e581"] ;
4 -> 5 ;
6 [label="gini = 0.0\nsamples = 1\nvalue = [0, 0, 1]\nclass = virginica", fillcolor="#8139e5"] ;
4 -> 6 ;
7 [label="gini = 0.0\nsamples = 7\nvalue = [0, 0, 10]\nclass = virginica", fillcolor="#8139e5"] ;
3 -> 7 ;
8 [label="petal length (cm) <= 5.05\ngini = 0.26\nsamples = 31\nvalue = [0, 7, 39]\nclass = virginica", fillcolor="#985dea"] ;
2 -> 8 ;
9 [label="petal width (cm) <= 1.8\ngini = 0.22\nsamples = 6\nvalue = [0, 7, 1]\nclass = versicolor", fillcolor="#55e993"] ;
8 -> 9 ;
10 [label="gini = 0.0\nsamples = 5\nvalue = [0, 7, 0]\nclass = versicolor", fillcolor="#39e581"] ;
9 -> 10 ;
11 [label="gini = 0.0\nsamples = 1\nvalue = [0, 0, 1]\nclass = virginica", fillcolor="#8139e5"] ;
9 -> 11 ;
12 [label="gini = 0.0\nsamples = 25\nvalue = [0, 0, 38]\nclass = virginica", fillcolor="#8139e5"] ;
8 -> 12 ;
}