digraph Tree {
node [shape=box, style="filled, rounded", color="black", fontname=helvetica] ;
edge [fontname=helvetica] ;
0 [label="sepal length (cm) <= 5.45\ngini = 0.66\nsamples = 93\nvalue = [42, 58, 50]\nclass = versicolor", fillcolor="#effdf5"] ;
1 [label="petal length (cm) <= 2.6\ngini = 0.14\nsamples = 26\nvalue = [37, 3, 0]\nclass = setosa", fillcolor="#e78b49"] ;
0 -> 1 [labeldistance=2.5, labelangle=45, headlabel="True"] ;
2 [label="gini = 0.0\nsamples = 23\nvalue = [37, 0, 0]\nclass = setosa", fillcolor="#e58139"] ;
1 -> 2 ;
3 [label="gini = 0.0\nsamples = 3\nvalue = [0, 3, 0]\nclass = versicolor", fillcolor="#39e581"] ;
1 -> 3 ;
4 [label="petal length (cm) <= 4.75\ngini = 0.54\nsamples = 67\nvalue = [5, 55, 50]\nclass = versicolor", fillcolor="#eefdf4"] ;
0 -> 4 [labeldistance=2.5, labelangle=-45, headlabel="False"] ;
5 [label="petal length (cm) <= 2.65\ngini = 0.16\nsamples = 33\nvalue = [5, 51, 0]\nclass = versicolor", fillcolor="#4ce88d"] ;
4 -> 5 ;
6 [label="gini = 0.0\nsamples = 3\nvalue = [5, 0, 0]\nclass = setosa", fillcolor="#e58139"] ;
5 -> 6 ;
7 [label="gini = 0.0\nsamples = 30\nvalue = [0, 51, 0]\nclass = versicolor", fillcolor="#39e581"] ;
5 -> 7 ;
8 [label="petal width (cm) <= 1.75\ngini = 0.14\nsamples = 34\nvalue = [0, 4, 50]\nclass = virginica", fillcolor="#8b49e7"] ;
4 -> 8 ;
9 [label="petal width (cm) <= 1.55\ngini = 0.42\nsamples = 7\nvalue = [0, 3, 7]\nclass = virginica", fillcolor="#b78ef0"] ;
8 -> 9 ;
10 [label="petal length (cm) <= 4.9\ngini = 0.24\nsamples = 4\nvalue = [0, 1, 6]\nclass = virginica", fillcolor="#965ae9"] ;
9 -> 10 ;
11 [label="gini = 0.0\nsamples = 1\nvalue = [0, 1, 0]\nclass = versicolor", fillcolor="#39e581"] ;
10 -> 11 ;
12 [label="gini = 0.0\nsamples = 3\nvalue = [0, 0, 6]\nclass = virginica", fillcolor="#8139e5"] ;
10 -> 12 ;
13 [label="sepal length (cm) <= 6.95\ngini = 0.44\nsamples = 3\nvalue = [0, 2, 1]\nclass = versicolor", fillcolor="#9cf2c0"] ;
9 -> 13 ;
14 [label="gini = 0.0\nsamples = 2\nvalue = [0, 2, 0]\nclass = versicolor", fillcolor="#39e581"] ;
13 -> 14 ;
15 [label="gini = 0.0\nsamples = 1\nvalue = [0, 0, 1]\nclass = virginica", fillcolor="#8139e5"] ;
13 -> 15 ;
16 [label="petal width (cm) <= 1.85\ngini = 0.04\nsamples = 27\nvalue = [0, 1, 43]\nclass = virginica", fillcolor="#843ee6"] ;
8 -> 16 ;
17 [label="sepal width (cm) <= 3.15\ngini = 0.13\nsamples = 9\nvalue = [0, 1, 13]\nclass = virginica", fillcolor="#8b48e7"] ;
16 -> 17 ;
18 [label="gini = 0.0\nsamples = 8\nvalue = [0, 0, 13]\nclass = virginica", fillcolor="#8139e5"] ;
17 -> 18 ;
19 [label="gini = 0.0\nsamples = 1\nvalue = [0, 1, 0]\nclass = versicolor", fillcolor="#39e581"] ;
17 -> 19 ;
20 [label="gini = 0.0\nsamples = 18\nvalue = [0, 0, 30]\nclass = virginica", fillcolor="#8139e5"] ;
16 -> 20 ;
}